<?xml version="1.0"?>
<opencv_storage>
<cascade>
  <stageType>BOOST</stageType>
  <featureType>HAAR</featureType>
  <height>24</height>
  <width>24</width>
  <stageParams>
    <boostType>GAB</boostType>
    <minHitRate>9.9500000476837158e-01</minHitRate>
    <maxFalseAlarm>5.0000000000000000e-01</maxFalseAlarm>
    <weightTrimRate>9.4999999999999996e-01</weightTrimRate>
    <maxDepth>1</maxDepth>
    <maxWeakCount>100</maxWeakCount></stageParams>
  <featureParams>
    <maxCatCount>0</maxCatCount>
    <featSize>1</featSize>
    <mode>BASIC</mode></featureParams>
  <stageNum>20</stageNum>
  <stages>
    <!-- stage 0 -->
    <_>
      <maxWeakCount>7</maxWeakCount>
      <stageThreshold>-9.1918975114822388e-01</stageThreshold>
      <weakClassifiers>
        <_>
          <internalNodes>
            0 -1 533 -6.1395764350891113e-03</internalNodes>
          <leafValues>
            6.8796294927597046e-01 -5.7857143878936768e-01</leafValues></_>
        <_>
          <internalNodes>
            0 -1 454 1.6888730227947235e-02</internalNodes>
          <leafValues>
            -2.2351978719234467e-01 7.0649933815002441e-01</leafValues></_>
        <_>
          <internalNodes>
            0 -1 537 -1.1009622365236282e-02</internalNodes>
          <leafValues>
            6.6718459129333496e-01 -1.2870252132415771e-01</leafValues></_>
        <_>
          <internalNodes>
            0 -1 557 -7.0114377886056900e-03</internalNodes>
          <leafValues>
            5.7897979021072388e-01 -1.9369992613792419e-01</leafValues></_>
        <_>
          <internalNodes>
            0 -1 558 8.7574701756238937e-03</internalNodes>
          <leafValues>
            -2.0852300524711609e-01 5.2300232648849487e-01</leafValues></_>
        <_>
          <internalNodes>
            0 -1 523 9.6277398988604546e-03</internalNodes>
          <leafValues>
            -1.2671610713005066e-01 5.2728974819183350e-01</leafValues></_>
        <_>
          <internalNodes>
            0 -1 207 -1.2133071199059486e-02</internalNodes>
          <leafValues>
            7.3276680707931519e-01 -1.1346282809972763e-01</leafValues></_></weakClassifiers></_>
    <!-- stage 1 -->
    <_>
      <maxWeakCount>28</maxWeakCount>
      <stageThreshold>-7.9403197765350342e-01</stageThreshold>
      <weakClassifiers>
        <_>
          <internalNodes>
            0 -1 563 -1.4656303450465202e-02</internalNodes>
          <leafValues>
            6.3674318790435791e-01 -2.0295202732086182e-01</leafValues></_>
        <_>
          <internalNodes>
            0 -1 451 1.6431089490652084e-02</internalNodes>
          <leafValues>
            -1.2769339978694916e-01 6.2823295593261719e-01</leafValues></_>
        <_>
          <internalNodes>
            0 -1 536 -1.3141877949237823e-02</internalNodes>
          <leafValues>
            5.7254970073699951e-01 -1.2553480267524719e-01</leafValues></_>
        <_>
          <internalNodes>
            0 -1 372 7.8487992286682129e-03</internalNodes>
          <leafValues>
            1.0817984491586685e-01 -6.0534030199050903e-01</leafValues></_>
        <_>
          <internalNodes>
            0 -1 531 -9.6109006553888321e-03</internalNodes>
          <leafValues>
            5.3938055038452148e-01 -1.2873297929763794e-01</leafValues></_>
        <_>
          <internalNodes>
            0 -1 448 1.9629506394267082e-02</internalNodes>
          <leafValues>
            -1.5402111411094666e-01 4.6550509333610535e-01</leafValues></_>
        <_>
          <internalNodes>
            0 -1 242 -8.6170114576816559e-02</internalNodes>
          <leafValues>
            6.9009619951248169e-01 -8.3948425948619843e-02</leafValues></_>
        <_>
          <internalNodes>
            0 -1 408 -1.3701719231903553e-02</internalNodes>
          <leafValues>
            3.5354518890380859e-01 -1.5467116236686707e-01</leafValues></_>
        <_>
          <internalNodes>
            0 -1 834 7.3496615514159203e-03</internalNodes>
          <leafValues>
            9.8935186862945557e-02 -6.3356941938400269e-01</leafValues></_>
        <_>
          <internalNodes>
            0 -1 293 5.8453477919101715e-02</internalNodes>
          <leafValues>
            -1.2008989602327347e-01 4.4169312715530396e-01</leafValues></_>
        <_>
          <internalNodes>
            0 -1 324 -5.0212112255394459e-03</internalNodes>
          <leafValues>
            3.7126368284225464e-01 -1.4416974782943726e-01</leafValues></_>
        <_>
          <internalNodes>
            0 -1 383 -4.9695507623255253e-03</internalNodes>
          <leafValues>
            4.0915328264236450e-01 -1.2268196791410446e-01</leafValues></_>
        <_>
          <internalNodes>
            0 -1 554 -2.4519700091332197e-03</internalNodes>
          <leafValues>
            4.4805732369422913e-01 -1.2439928948879242e-01</leafValues></_>
        <_>
          <internalNodes>
            0 -1 545 -8.2805175334215164e-03</internalNodes>
          <leafValues>
            -6.4153701066970825e-01 9.7504921257495880e-02</leafValues></_>
        <_>
          <internalNodes>
            0 -1 449 -3.7605082616209984e-03</internalNodes>
          <leafValues>
            1.7547896504402161e-01 -2.4615252017974854e-01</leafValues></_>
        <_>
          <internalNodes>
            0 -1 461 2.1313015371561050e-02</internalNodes>
          <leafValues>
            -1.0262844711542130e-01 4.4712093472480774e-01</leafValues></_>
        <_>
          <internalNodes>
            0 -1 369 3.5783775150775909e-02</internalNodes>
          <leafValues>
            7.0553228259086609e-02 -7.1891319751739502e-01</leafValues></_>
        <_>
          <internalNodes>
            0 -1 1 1.4352878788486123e-03</internalNodes>
          <leafValues>
            1.6665266454219818e-01 -2.5868380069732666e-01</leafValues></_>
        <_>
          <internalNodes>
            0 -1 479 1.5797388041391969e-03</internalNodes>
          <leafValues>
            1.2225865572690964e-01 -3.4072598814964294e-01</leafValues></_>
        <_>
          <internalNodes>
            0 -1 42 5.1899738609790802e-03</internalNodes>
          <leafValues>
            -1.0773378610610962e-01 4.0792909264564514e-01</leafValues></_>
        <_>
          <internalNodes>
            0 -1 302 1.2568287551403046e-02</internalNodes>
          <leafValues>
            -8.7912991642951965e-02 4.2371749877929688e-01</leafValues></_>
        <_>
          <internalNodes>
            0 -1 588 -4.9560412298887968e-04</internalNodes>
          <leafValues>
            -2.2438529133796692e-01 1.8714447319507599e-01</leafValues></_>
        <_>
          <internalNodes>
            0 -1 584 1.3419533206615597e-04</internalNodes>
          <leafValues>
            1.0949182510375977e-01 -4.2508405447006226e-01</leafValues></_>
        <_>
          <internalNodes>
            0 -1 119 -6.2107769772410393e-03</internalNodes>
          <leafValues>
            -3.9129143953323364e-01 9.8940961062908173e-02</leafValues></_>
        <_>
          <internalNodes>
            0 -1 287 -5.4013701155781746e-03</internalNodes>
          <leafValues>
            -4.9119785428047180e-01 8.2008428871631622e-02</leafValues></_>
        <_>
          <internalNodes>
            0 -1 696 -4.0011631790548563e-04</internalNodes>
          <leafValues>
            1.6662536561489105e-01 -2.5055688619613647e-01</leafValues></_>
        <_>
          <internalNodes>
            0 -1 745 -9.7546074539422989e-03</internalNodes>
          <leafValues>
            -7.9131549596786499e-01 5.6689973920583725e-02</leafValues></_>
        <_>
          <internalNodes>
            0 -1 304 1.2565050274133682e-02</internalNodes>
          <leafValues>
            -1.1144059151411057e-01 4.1333559155464172e-01</leafValues></_></weakClassifiers></_>
    <!-- stage 2 -->
    <_>
      <maxWeakCount>34</maxWeakCount>
      <stageThreshold>-8.3652502298355103e-01</stageThreshold>
      <weakClassifiers>
        <_>
          <internalNodes>
            0 -1 453 1.8389441072940826e-02</internalNodes>
          <leafValues>
            7.8494623303413391e-02 7.4912279844284058e-01</leafValues></_>
        <_>
          <internalNodes>
            0 -1 529 -5.4227882064878941e-03</internalNodes>
          <leafValues>
            2.4735385179519653e-01 -3.5024785995483398e-01</leafValues></_>
        <_>
          <internalNodes>
            0 -1 243 -1.1731965839862823e-01</internalNodes>
          <leafValues>
            7.0805108547210693e-01 -9.4752371311187744e-02</leafValues></_>
        <_>
          <internalNodes>
            0 -1 170 1.0812185704708099e-02</internalNodes>
          <leafValues>
            -2.7720871567726135e-01 2.1726168692111969e-01</leafValues></_>
        <_>
          <internalNodes>
            0 -1 443 -2.1215876564383507e-02</internalNodes>
          <leafValues>
            6.6658860445022583e-01 -5.8913648128509521e-02</leafValues></_>
        <_>
          <internalNodes>
            0 -1 537 1.4527792111039162e-02</internalNodes>
          <leafValues>
            -1.4179292321205139e-01 3.8682159781455994e-01</leafValues></_>
        <_>
          <internalNodes>
            0 -1 329 3.2970815896987915e-02</internalNodes>
          <leafValues>
            6.2078420072793961e-02 -7.4018144607543945e-01</leafValues></_>
        <_>
          <internalNodes>
            0 -1 560 1.8452029675245285e-02</internalNodes>
          <leafValues>
            -1.1296372115612030e-01 5.2116346359252930e-01</leafValues></_>
        <_>
          <internalNodes>
            0 -1 575 2.0461459644138813e-04</internalNodes>
          <leafValues>
            1.7474676668643951e-01 -2.8541359305381775e-01</leafValues></_>
        <_>
          <internalNodes>
            0 -1 568 2.2617480717599392e-03</internalNodes>
          <leafValues>
            1.0086489468812943e-01 -5.4216641187667847e-01</leafValues></_>
        <_>
          <internalNodes>
            0 -1 467 -1.3576718047261238e-02</internalNodes>
          <leafValues>
            -6.2668687105178833e-01 6.0050964355468750e-02</leafValues></_>
        <_>
          <internalNodes>
            0 -1 341 -1.3182585127651691e-02</internalNodes>
          <leafValues>
            2.9169702529907227e-01 -1.4125461876392365e-01</leafValues></_>
        <_>
          <internalNodes>
            0 -1 585 1.1269385140622035e-04</internalNodes>
          <leafValues>
            1.4948043227195740e-01 -3.2110160589218140e-01</leafValues></_>
        <_>
          <internalNodes>
            0 -1 251 1.1752611026167870e-02</internalNodes>
          <leafValues>
            -9.9007353186607361e-02 4.0415579080581665e-01</leafValues></_>
        <_>
          <internalNodes>
            0 -1 627 -4.9687428399920464e-03</internalNodes>
          <leafValues>
            3.7249782681465149e-01 -9.9441193044185638e-02</leafValues></_>
        <_>
          <internalNodes>
            0 -1 366 -8.4517830982804298e-03</internalNodes>
          <leafValues>
            3.3290377259254456e-01 -1.0630837082862854e-01</leafValues></_>
        <_>
          <internalNodes>
            0 -1 82 1.4648768119513988e-03</internalNodes>
          <leafValues>
            5.1157616078853607e-02 -7.3354107141494751e-01</leafValues></_>
        <_>
          <internalNodes>
            0 -1 240 7.1285211015492678e-04</internalNodes>
          <leafValues>
            1.5323349833488464e-01 -2.3226407170295715e-01</leafValues></_>
        <_>
          <internalNodes>
            0 -1 311 -2.1549604833126068e-02</internalNodes>
          <leafValues>
            6.0383123159408569e-01 -7.4688814580440521e-02</leafValues></_>
        <_>
          <internalNodes>
            0 -1 730 -8.1223022425547242e-04</internalNodes>
          <leafValues>
            -3.4769031405448914e-01 1.1093633621931076e-01</leafValues></_>
        <_>
          <internalNodes>
            0 -1 316 -8.0130789428949356e-03</internalNodes>
          <leafValues>
            -2.6817476749420166e-01 1.4314553141593933e-01</leafValues></_>
        <_>
          <internalNodes>
            0 -1 725 1.9525042735040188e-03</internalNodes>
          <leafValues>
            -1.8686535954475403e-01 2.0016692578792572e-01</leafValues></_>
        <_>
          <internalNodes>
            0 -1 639 -2.3994673974812031e-03</internalNodes>
          <leafValues>
            -9.3096059560775757e-01 4.1880652308464050e-02</leafValues></_>
        <_>
          <internalNodes>
            0 -1 870 -4.5138476416468620e-03</internalNodes>
          <leafValues>
            -7.6528626680374146e-01 3.5024076700210571e-02</leafValues></_>
        <_>
          <internalNodes>
            0 -1 389 1.1371888685971498e-03</internalNodes>
          <leafValues>
            -1.2671202421188354e-01 2.6328697800636292e-01</leafValues></_>
        <_>
          <internalNodes>
            0 -1 471 1.4612909872084856e-03</internalNodes>
          <leafValues>
            4.9881335347890854e-02 -6.8094646930694580e-01</leafValues></_>
        <_>
          <internalNodes>
            0 -1 468 -1.0072493460029364e-03</internalNodes>
          <leafValues>
            -1.8949742615222931e-01 1.7546747624874115e-01</leafValues></_>
        <_>
          <internalNodes>
            0 -1 521 8.2138124853372574e-03</internalNodes>
          <leafValues>
            -1.3484328985214233e-01 2.7595376968383789e-01</leafValues></_>
        <_>
          <internalNodes>
            0 -1 433 2.6234872639179230e-02</internalNodes>
          <leafValues>
            5.2153673022985458e-02 -8.2023167610168457e-01</leafValues></_>
        <_>
          <internalNodes>
            0 -1 64 -2.2146850824356079e-02</internalNodes>
          <leafValues>
            -5.6433439254760742e-01 5.2009020000696182e-02</leafValues></_>
        <_>
          <internalNodes>
            0 -1 775 2.9808315448462963e-03</internalNodes>
          <leafValues>
            1.4088337123394012e-01 -2.3140175640583038e-01</leafValues></_>
        <_>
          <internalNodes>
            0 -1 480 1.5492588281631470e-02</internalNodes>
          <leafValues>
            -1.0096150636672974e-01 3.2616996765136719e-01</leafValues></_>
        <_>
          <internalNodes>
            0 -1 427 -9.3566244468092918e-03</internalNodes>
          <leafValues>
            3.6315527558326721e-01 -9.1180026531219482e-02</leafValues></_>
        <_>
          <internalNodes>
            0 -1 679 -1.0884997434914112e-02</internalNodes>
          <leafValues>
            -3.8624587655067444e-01 8.4953308105468750e-02</leafValues></_></weakClassifiers></_>
    <!-- stage 3 -->
    <_>
      <maxWeakCount>33</maxWeakCount>
      <stageThreshold>-6.4129364490509033e-01</stageThreshold>
      <weakClassifiers>
        <_>
          <internalNodes>
            0 -1 532 8.7563656270503998e-03</internalNodes>
          <leafValues>
            1.8895348533987999e-02 5.9975367784500122e-01</leafValues></_>
        <_>
          <internalNodes>
            0 -1 531 9.6230767667293549e-03</internalNodes>
          <leafValues>
            -1.2140701711177826e-01 4.0131562948226929e-01</leafValues></_>
        <_>
          <internalNodes>
            0 -1 255 -6.5491884946823120e-02</internalNodes>
          <leafValues>
            5.4275029897689819e-01 -1.0192614048719406e-01</leafValues></_>
        <_>
          <internalNodes>
            0 -1 247 5.4398356005549431e-03</internalNodes>
          <leafValues>
            -3.1009498238563538e-01 2.2221386432647705e-01</leafValues></_>
        <_>
          <internalNodes>
            0 -1 547 -3.3974605612456799e-03</internalNodes>
          <leafValues>
            4.2943960428237915e-01 -8.9917905628681183e-02</leafValues></_>
        <_>
          <internalNodes>
            0 -1 523 1.1496974155306816e-02</internalNodes>
          <leafValues>
            -1.2492787837982178e-01 4.0786159038543701e-01</leafValues></_>
        <_>
          <internalNodes>
            0 -1 357 -1.2733226642012596e-02</internalNodes>
          <leafValues>
            3.8520181179046631e-01 -9.1366000473499298e-02</leafValues></_>
        <_>
          <internalNodes>
            0 -1 326 -2.6887301355600357e-02</internalNodes>
          <leafValues>
            3.7562802433967590e-01 -9.8054714500904083e-02</leafValues></_>
        <_>
          <internalNodes>
            0 -1 503 6.0661216266453266e-03</internalNodes>
          <leafValues>
            -1.7876791954040527e-01 2.6777714490890503e-01</leafValues></_>
        <_>
          <internalNodes>
            0 -1 637 -2.9980752151459455e-04</internalNodes>
          <leafValues>
            2.1052433550357819e-01 -2.0315994322299957e-01</leafValues></_>
        <_>
          <internalNodes>
            0 -1 206 1.5218975022435188e-02</internalNodes>
          <leafValues>
            8.4619939327239990e-02 -4.8538720607757568e-01</leafValues></_>
        <_>
          <internalNodes>
            0 -1 631 3.7105660885572433e-03</internalNodes>
          <leafValues>
            3.5958822816610336e-02 -6.7389816045761108e-01</leafValues></_>
        <_>
          <internalNodes>
            0 -1 583 -3.8442999124526978e-02</internalNodes>
          <leafValues>
            6.7033499479293823e-01 -5.4400917142629623e-02</leafValues></_>
        <_>
          <internalNodes>
            0 -1 494 7.2413636371493340e-03</internalNodes>
          <leafValues>
            -1.1150323599576950e-01 3.2825255393981934e-01</leafValues></_>
        <_>
          <internalNodes>
            0 -1 337 5.3832388948649168e-04</internalNodes>
          <leafValues>
            -1.2248104810714722e-01 2.6505121588706970e-01</leafValues></_>
        <_>
          <internalNodes>
            0 -1 470 1.4811518485657871e-04</internalNodes>
          <leafValues>
            1.0283493250608444e-01 -3.3596247434616089e-01</leafValues></_>
        <_>
          <internalNodes>
            0 -1 584 -2.8693571221083403e-04</internalNodes>
          <leafValues>
            -2.2460800409317017e-01 1.7497965693473816e-01</leafValues></_>
        <_>
          <internalNodes>
            0 -1 390 -1.2592955026775599e-03</internalNodes>
          <leafValues>
            1.9198362529277802e-01 -1.7960125207901001e-01</leafValues></_>
        <_>
          <internalNodes>
            0 -1 399 -7.9861003905534744e-03</internalNodes>
          <leafValues>
            -5.2796298265457153e-01 7.3203861713409424e-02</leafValues></_>
        <_>
          <internalNodes>
            0 -1 184 7.7136028558015823e-03</internalNodes>
          <leafValues>
            -9.2849627137184143e-02 3.7859416007995605e-01</leafValues></_>
        <_>
          <internalNodes>
            0 -1 619 -1.1412958614528179e-02</internalNodes>
          <leafValues>
            4.2384386062622070e-01 -7.6081745326519012e-02</leafValues></_>
        <_>
          <internalNodes>
            0 -1 693 1.1843725806102157e-03</internalNodes>
          <leafValues>
            -1.0299803316593170e-01 3.1522765755653381e-01</leafValues></_>
        <_>
          <internalNodes>
            0 -1 425 2.5468994863331318e-03</internalNodes>
          <leafValues>
            -1.1924042552709579e-01 2.9101940989494324e-01</leafValues></_>
        <_>
          <internalNodes>
            0 -1 732 -2.3888718336820602e-02</internalNodes>
          <leafValues>
            3.8838806748390198e-01 -8.6353667080402374e-02</leafValues></_>
        <_>
          <internalNodes>
            0 -1 282 8.0625689588487148e-04</internalNodes>
          <leafValues>
            -1.4329777657985687e-01 2.3975253105163574e-01</leafValues></_>
        <_>
          <internalNodes>
            0 -1 14 1.4205636456608772e-02</internalNodes>
          <leafValues>
            -1.6015896201133728e-01 2.0397759974002838e-01</leafValues></_>
        <_>
          <internalNodes>
            0 -1 810 3.0429189791902900e-04</internalNodes>
          <leafValues>
            1.0956306755542755e-01 -3.2503479719161987e-01</leafValues></_>
        <_>
          <internalNodes>
            0 -1 806 -3.6055196076631546e-02</internalNodes>
          <leafValues>
            3.4554642438888550e-01 -8.8564448058605194e-02</leafValues></_>
        <_>
          <internalNodes>
            0 -1 817 3.6358214914798737e-02</internalNodes>
          <leafValues>
            5.2069541066884995e-02 -6.6732257604598999e-01</leafValues></_>
        <_>
          <internalNodes>
            0 -1 783 -3.0326554551720619e-03</internalNodes>
          <leafValues>
            2.6577791571617126e-01 -1.2281248718500137e-01</leafValues></_>
        <_>
          <internalNodes>
            0 -1 830 9.1656930744647980e-03</internalNodes>
          <leafValues>
            9.1102458536624908e-02 -3.5263401269912720e-01</leafValues></_>
        <_>
          <internalNodes>
            0 -1 387 4.0236316621303558e-02</internalNodes>
          <leafValues>
            -5.3783796727657318e-02 6.0151964426040649e-01</leafValues></_>
        <_>
          <internalNodes>
            0 -1 507 -5.5550798773765564e-02</internalNodes>
          <leafValues>
            -6.9233745336532593e-01 5.1597662270069122e-02</leafValues></_></weakClassifiers></_>
    <!-- stage 4 -->
    <_>
      <maxWeakCount>41</maxWeakCount>
      <stageThreshold>-6.7397511005401611e-01</stageThreshold>
      <weakClassifiers>
        <_>
          <internalNodes>
            0 -1 456 1.9626952707767487e-02</internalNodes>
          <leafValues>
            9.8224848508834839e-02 6.3664120435714722e-01</leafValues></_>
        <_>
          <internalNodes>
            0 -1 446 2.3625615984201431e-02</internalNodes>
          <leafValues>
            -6.9385975599288940e-02 4.6621629595756531e-01</leafValues></_>
        <_>
          <internalNodes>
            0 -1 387 3.1520664691925049e-02</internalNodes>
          <leafValues>
            -8.6777381598949432e-02 5.4823672771453857e-01</leafValues></_>
        <_>
          <internalNodes>
            0 -1 374 3.8312353193759918e-02</internalNodes>
          <leafValues>
            -1.1360110342502594e-01 4.3179869651794434e-01</leafValues></_>
        <_>
          <internalNodes>
            0 -1 288 -4.9195948988199234e-02</internalNodes>
          <leafValues>
            4.2901825904846191e-01 -1.2731279432773590e-01</leafValues></_>
        <_>
          <internalNodes>
            0 -1 548 -4.3462398461997509e-03</internalNodes>
          <leafValues>
            3.2720690965652466e-01 -1.1089441180229187e-01</leafValues></_>
        <_>
          <internalNodes>
            0 -1 340 -4.4348172843456268e-02</internalNodes>
          <leafValues>
            5.1320576667785645e-01 -5.7938348501920700e-02</leafValues></_>
        <_>
          <internalNodes>
            0 -1 645 9.1625973582267761e-03</internalNodes>
          <leafValues>
            -1.0572061687707901e-01 3.5648745298385620e-01</leafValues></_>
        <_>
          <internalNodes>
            0 -1 196 -5.8123018592596054e-02</internalNodes>
          <leafValues>
            4.4514548778533936e-01 -6.9279491901397705e-02</leafValues></_>
        <_>
          <internalNodes>
            0 -1 472 7.2884175460785627e-04</internalNodes>
          <leafValues>
            7.0672959089279175e-02 -5.2383601665496826e-01</leafValues></_>
        <_>
          <internalNodes>
            0 -1 660 -1.7811281140893698e-03</internalNodes>
          <leafValues>
            3.0075591802597046e-01 -1.0685777664184570e-01</leafValues></_>
        <_>
          <internalNodes>
            0 -1 84 -1.5800642967224121e-01</internalNodes>
          <leafValues>
            -7.2404897212982178e-01 3.8772020488977432e-02</leafValues></_>
        <_>
          <internalNodes>
            0 -1 668 -1.6905994561966509e-04</internalNodes>
          <leafValues>
            -2.1632531285285950e-01 1.4994534850120544e-01</leafValues></_>
        <_>
          <internalNodes>
            0 -1 111 3.2114412635564804e-02</internalNodes>
          <leafValues>
            5.6231904774904251e-02 -5.5645072460174561e-01</leafValues></_>
        <_>
          <internalNodes>
            0 -1 217 6.1809911858290434e-04</internalNodes>
          <leafValues>
            -1.2855319678783417e-01 2.2625751793384552e-01</leafValues></_>
        <_>
          <internalNodes>
            0 -1 624 3.4849491203203797e-04</internalNodes>
          <leafValues>
            5.6181136518716812e-02 -5.5041718482971191e-01</leafValues></_>
        <_>
          <internalNodes>
            0 -1 561 -1.3522146269679070e-02</internalNodes>
          <leafValues>
            5.9304797649383545e-01 -6.4945541322231293e-02</leafValues></_>
        <_>
          <internalNodes>
            0 -1 638 -1.6883472562767565e-04</internalNodes>
          <leafValues>
            -1.8496675789356232e-01 2.1756997704505920e-01</leafValues></_>
        <_>
          <internalNodes>
            0 -1 692 -6.4480812288820744e-03</internalNodes>
          <leafValues>
            -7.0065695047378540e-01 5.9111822396516800e-02</leafValues></_>
        <_>
          <internalNodes>
            0 -1 524 -5.5697084462735802e-05</internalNodes>
          <leafValues>
            -2.0193007588386536e-01 1.7113249003887177e-01</leafValues></_>
        <_>
          <internalNodes>
            0 -1 613 6.1474356334656477e-04</internalNodes>
          <leafValues>
            -1.8946872651576996e-01 2.0403723418712616e-01</leafValues></_>
        <_>
          <internalNodes>
            0 -1 0 -7.1182753890752792e-03</internalNodes>
          <leafValues>
            -3.4964963793754578e-01 9.7810126841068268e-02</leafValues></_>
        <_>
          <internalNodes>
            0 -1 31 4.1026091203093529e-03</internalNodes>
          <leafValues>
            -1.2999919056892395e-01 2.5799405574798584e-01</leafValues></_>
        <_>
          <internalNodes>
            0 -1 846 -1.6921509057283401e-02</internalNodes>
          <leafValues>
            -6.4085841178894043e-01 5.1319830119609833e-02</leafValues></_>
        <_>
          <internalNodes>
            0 -1 638 1.7255273996852338e-04</internalNodes>
          <leafValues>
            7.6244130730628967e-02 -3.9248678088188171e-01</leafValues></_>
        <_>
          <internalNodes>
            0 -1 611 -2.0344364456832409e-03</internalNodes>
          <leafValues>
            3.2666701078414917e-01 -9.9863961338996887e-02</leafValues></_>
        <_>
          <internalNodes>
            0 -1 327 4.5049935579299927e-02</internalNodes>
          <leafValues>
            4.4998586177825928e-02 -7.2594380378723145e-01</leafValues></_>
        <_>
          <internalNodes>
            0 -1 770 5.1534040831029415e-03</internalNodes>
          <leafValues>
            -1.3616646826267242e-01 2.2335398197174072e-01</leafValues></_>
        <_>
          <internalNodes>
            0 -1 464 -1.0390346869826317e-02</internalNodes>
          <leafValues>
            1.8520718812942505e-01 -1.6538429260253906e-01</leafValues></_>
        <_>
          <internalNodes>
            0 -1 677 -1.6407984367106110e-04</internalNodes>
          <leafValues>
            -2.1252539753913879e-01 1.4463721215724945e-01</leafValues></_>
        <_>
          <internalNodes>
            0 -1 764 -5.1034567877650261e-03</internalNodes>
          <leafValues>
            -7.8146982192993164e-01 3.6948673427104950e-02</leafValues></_>
        <_>
          <internalNodes>
            0 -1 765 -5.4783473024144769e-04</internalNodes>
          <leafValues>
            1.8664437532424927e-01 -1.5942732989788055e-01</leafValues></_>
        <_>
          <internalNodes>
            0 -1 93 1.0030912235379219e-03</internalNodes>
          <leafValues>
            -1.3766303658485413e-01 2.1046802401542664e-01</leafValues></_>
        <_>
          <internalNodes>
            0 -1 267 7.2939940728247166e-03</internalNodes>
          <leafValues>
            -8.6964830756187439e-02 3.4286749362945557e-01</leafValues></_>
        <_>
          <internalNodes>
            0 -1 299 -2.8713979190797545e-05</internalNodes>
          <leafValues>
            -1.7490024864673615e-01 1.7482548952102661e-01</leafValues></_>
        <_>
          <internalNodes>
            0 -1 323 -1.1445622891187668e-02</internalNodes>
          <leafValues>
            -6.5850412845611572e-01 4.8873208463191986e-02</leafValues></_>
        <_>
          <internalNodes>
            0 -1 142 -2.2520339116454124e-03</internalNodes>
          <leafValues>
            -3.3258265256881714e-01 8.8274449110031128e-02</leafValues></_>
        <_>
          <internalNodes>
            0 -1 191 -1.1678542196750641e-01</internalNodes>
          <leafValues>
            -5.3700369596481323e-01 5.9220857918262482e-02</leafValues></_>
        <_>
          <internalNodes>
            0 -1 5 9.9527433514595032e-02</internalNodes>
          <leafValues>
            -6.2462657690048218e-02 5.7758980989456177e-01</leafValues></_>
        <_>
          <internalNodes>
            0 -1 405 7.1885231882333755e-03</internalNodes>
          <leafValues>
            -3.7681087851524353e-02 6.2375336885452271e-01</leafValues></_>
        <_>
          <internalNodes>
            0 -1 473 -1.3755834661424160e-03</internalNodes>
          <leafValues>
            -1.9944810867309570e-01 1.5692634880542755e-01</leafValues></_></weakClassifiers></_>
    <!-- stage 5 -->
    <_>
      <maxWeakCount>44</maxWeakCount>
      <stageThreshold>-6.6598325967788696e-01</stageThreshold>
      <weakClassifiers>
        <_>
          <internalNodes>
            0 -1 569 -7.2332527488470078e-03</internalNodes>
          <leafValues>
            5.9906762838363647e-01 1.3368359208106995e-01</leafValues></_>
        <_>
          <internalNodes>
            0 -1 512 -1.6137529164552689e-02</internalNodes>
          <leafValues>
            5.4724800586700439e-01 -4.8701561987400055e-02</leafValues></_>
        <_>
          <internalNodes>
            0 -1 525 -1.9019538536667824e-02</internalNodes>
          <leafValues>
            5.0162905454635620e-01 -1.1213495582342148e-01</leafValues></_>
        <_>
          <internalNodes>
            0 -1 444 2.9006430879235268e-02</internalNodes>
          <leafValues>
            -5.7735189795494080e-02 6.9962143898010254e-01</leafValues></_>
        <_>
          <internalNodes>
            0 -1 614 4.2474600486457348e-03</internalNodes>
          <leafValues>
            -5.6983236223459244e-02 3.5303801298141479e-01</leafValues></_>
        <_>
          <internalNodes>
            0 -1 404 -7.8945858404040337e-03</internalNodes>
          <leafValues>
            -4.8255738615989685e-01 4.9294680356979370e-02</leafValues></_>
        <_>
          <internalNodes>
            0 -1 183 -5.2842516452074051e-02</internalNodes>
          <leafValues>
            4.3448221683502197e-01 -7.7264182269573212e-02</leafValues></_>
        <_>
          <internalNodes>
            0 -1 506 3.0082354787737131e-03</internalNodes>
          <leafValues>
            -1.7803771793842316e-01 2.4124003946781158e-01</leafValues></_>
        <_>
          <internalNodes>
            0 -1 54 -1.1945996433496475e-01</internalNodes>
          <leafValues>
            4.7317859530448914e-01 -6.4552344381809235e-02</leafValues></_>
        <_>
          <internalNodes>
            0 -1 434 -2.1108690649271011e-02</internalNodes>
          <leafValues>
            4.1200271248817444e-01 -5.8944817632436752e-02</leafValues></_>
        <_>
          <internalNodes>
            0 -1 376 3.5301439464092255e-02</internalNodes>
          <leafValues>
            3.4853264689445496e-02 -8.2118403911590576e-01</leafValues></_>
        <_>
          <internalNodes>
            0 -1 589 -2.2843488841317594e-04</internalNodes>
          <leafValues>
            -2.3676383495330811e-01 1.2645953893661499e-01</leafValues></_>
        <_>
          <internalNodes>
            0 -1 580 -1.5872910618782043e-02</internalNodes>
          <leafValues>
            3.6417418718338013e-01 -1.0284549742937088e-01</leafValues></_>
        <_>
          <internalNodes>
            0 -1 735 -7.9844053834676743e-03</internalNodes>
          <leafValues>
            -3.7844207882881165e-01 7.7991217374801636e-02</leafValues></_>
        <_>
          <internalNodes>
            0 -1 608 9.4197317957878113e-03</internalNodes>
          <leafValues>
            -1.0847537964582443e-01 2.7135515213012695e-01</leafValues></_>
        <_>
          <internalNodes>
            0 -1 478 4.0104975923895836e-03</internalNodes>
          <leafValues>
            4.7674641013145447e-02 -6.2719327211380005e-01</leafValues></_>
        <_>
          <internalNodes>
            0 -1 155 -8.7884743697941303e-04</internalNodes>
          <leafValues>
            1.8599148094654083e-01 -1.5392789244651794e-01</leafValues></_>
        <_>
          <internalNodes>
            0 -1 844 4.0392382652498782e-04</internalNodes>
          <leafValues>
            1.0335639119148254e-01 -2.7042064070701599e-01</leafValues></_>
        <_>
          <internalNodes>
            0 -1 755 2.1349177695810795e-03</internalNodes>
          <leafValues>
            9.9342688918113708e-02 -2.8150933980941772e-01</leafValues></_>
        <_>
          <internalNodes>
            0 -1 708 -9.0729189105331898e-04</internalNodes>
          <leafValues>
            3.3554244041442871e-01 -8.4083862602710724e-02</leafValues></_>
        <_>
          <internalNodes>
            0 -1 334 2.0912922918796539e-02</internalNodes>
          <leafValues>
            -9.9130682647228241e-02 2.7421468496322632e-01</leafValues></_>
        <_>
          <internalNodes>
            0 -1 530 -1.0200538672506809e-02</internalNodes>
          <leafValues>
            4.3266713619232178e-01 -7.4027687311172485e-02</leafValues></_>
        <_>
          <internalNodes>
            0 -1 394 -2.3287239309865981e-04</internalNodes>
          <leafValues>
            1.7939348518848419e-01 -1.6344769299030304e-01</leafValues></_>
        <_>
          <internalNodes>
            0 -1 688 -3.6251447163522243e-03</internalNodes>
          <leafValues>
            -5.4681736230850220e-01 5.2147746086120605e-02</leafValues></_>
        <_>
          <internalNodes>
            0 -1 690 4.7568641602993011e-03</internalNodes>
          <leafValues>
            7.4323773384094238e-02 -3.5439264774322510e-01</leafValues></_>
        <_>
          <internalNodes>
            0 -1 575 1.1735082080122083e-04</internalNodes>
          <leafValues>
            1.1763906478881836e-01 -2.3030209541320801e-01</leafValues></_>
        <_>
          <internalNodes>
            0 -1 561 -1.0232260450720787e-02</internalNodes>
          <leafValues>
            4.4534817337989807e-01 -7.9098649322986603e-02</leafValues></_>
        <_>
          <internalNodes>
            0 -1 455 4.6396963298320770e-03</internalNodes>
          <leafValues>
            5.4883282631635666e-02 -6.7130231857299805e-01</leafValues></_>
        <_>
          <internalNodes>
            0 -1 599 -1.1424538679420948e-03</internalNodes>
          <leafValues>
            3.1307610869407654e-01 -9.1423109173774719e-02</leafValues></_>
        <_>
          <internalNodes>
            0 -1 489 8.0579714849591255e-03</internalNodes>
          <leafValues>
            -3.9870835840702057e-02 6.8581748008728027e-01</leafValues></_>
        <_>
          <internalNodes>
            0 -1 723 7.9038098920136690e-04</internalNodes>
          <leafValues>
            -1.2718187272548676e-01 2.2061574459075928e-01</leafValues></_>
        <_>
          <internalNodes>
            0 -1 116 6.4024352468550205e-05</internalNodes>
          <leafValues>
            1.5231542289257050e-01 -1.8666365742683411e-01</leafValues></_>
        <_>
          <internalNodes>
            0 -1 51 2.0661583170294762e-02</internalNodes>
          <leafValues>
            4.7835990786552429e-02 -5.9028053283691406e-01</leafValues></_>
        <_>
          <internalNodes>
            0 -1 188 -4.5162085443735123e-03</internalNodes>
          <leafValues>
            -8.2716965675354004e-01 3.0391002073884010e-02</leafValues></_>
        <_>
          <internalNodes>
            0 -1 672 -3.9874510839581490e-03</internalNodes>
          <leafValues>
            2.1132133901119232e-01 -1.2474810332059860e-01</leafValues></_>
        <_>
          <internalNodes>
            0 -1 594 -5.1233340054750443e-03</internalNodes>
          <leafValues>
            3.2641449570655823e-01 -1.1197074502706528e-01</leafValues></_>
        <_>
          <internalNodes>
            0 -1 272 5.4479052778333426e-04</internalNodes>
          <leafValues>
            9.5636747777462006e-02 -3.0324193835258484e-01</leafValues></_>
        <_>
          <internalNodes>
            0 -1 424 7.8096636570990086e-04</internalNodes>
          <leafValues>
            -1.0665400326251984e-01 2.6180431246757507e-01</leafValues></_>
        <_>
          <internalNodes>
            0 -1 868 1.3971962034702301e-03</internalNodes>
          <leafValues>
            1.1498062312602997e-01 -2.5702294707298279e-01</leafValues></_>
        <_>
          <internalNodes>
            0 -1 664 -2.6034615002572536e-03</internalNodes>
          <leafValues>
            2.3992514610290527e-01 -1.2082341313362122e-01</leafValues></_>
        <_>
          <internalNodes>
            0 -1 296 -2.7364991605281830e-02</internalNodes>
          <leafValues>
            3.1328299641609192e-01 -1.0168428719043732e-01</leafValues></_>
        <_>
          <internalNodes>
            0 -1 780 -1.7497889930382371e-03</internalNodes>
          <leafValues>
            -3.5172235965728760e-01 8.3628751337528229e-02</leafValues></_>
        <_>
          <internalNodes>
            0 -1 241 2.2462092339992523e-02</internalNodes>
          <leafValues>
            -1.4642223715782166e-01 1.9855423271656036e-01</leafValues></_>
        <_>
          <internalNodes>
            0 -1 452 -4.7519393265247345e-03</internalNodes>
          <leafValues>
            2.8105258941650391e-01 -1.0154101997613907e-01</leafValues></_></weakClassifiers></_>
    <!-- stage 6 -->
    <_>
      <maxWeakCount>50</maxWeakCount>
      <stageThreshold>-6.3876545429229736e-01</stageThreshold>
      <weakClassifiers>
        <_>
          <internalNodes>
            0 -1 571 -1.1654382105916739e-03</internalNodes>
          <leafValues>
            4.3783783912658691e-01 -8.9075632393360138e-02</leafValues></_>
        <_>
          <internalNodes>
            0 -1 648 1.7017616191878915e-03</internalNodes>
          <leafValues>
            -1.0273400694131851e-01 3.3250242471694946e-01</leafValues></_>
        <_>
          <internalNodes>
            0 -1 630 -2.7246167883276939e-04</internalNodes>
          <leafValues>
            1.6655722260475159e-01 -2.2186583280563354e-01</leafValues></_>
        <_>
          <internalNodes>
            0 -1 380 -1.4568795450031757e-03</internalNodes>
          <leafValues>
            3.3777537941932678e-01 -1.0776827484369278e-01</leafValues></_>
        <_>
          <internalNodes>
            0 -1 350 6.2174210324883461e-03</internalNodes>
          <leafValues>
            -1.4700342714786530e-01 2.9505854845046997e-01</leafValues></_>
        <_>
          <internalNodes>
            0 -1 413 -5.5000004358589649e-03</internalNodes>
          <leafValues>
            3.4126567840576172e-01 -9.2572428286075592e-02</leafValues></_>
        <_>
          <internalNodes>
            0 -1 409 4.4251820072531700e-03</internalNodes>
          <leafValues>
            -1.2112203240394592e-01 2.5167721509933472e-01</leafValues></_>
        <_>
          <internalNodes>
            0 -1 189 1.0419583879411221e-02</internalNodes>
          <leafValues>
            3.0840078368782997e-02 -8.4710592031478882e-01</leafValues></_>
        <_>
          <internalNodes>
            0 -1 646 1.3402407057583332e-03</internalNodes>
          <leafValues>
            -1.4238041639328003e-01 2.1504430472850800e-01</leafValues></_>
        <_>
          <internalNodes>
            0 -1 325 -4.1935428977012634e-02</internalNodes>
          <leafValues>
            3.9634457230567932e-01 -7.9541221261024475e-02</leafValues></_>
        <_>
          <internalNodes>
            0 -1 593 -5.9346710331737995e-03</internalNodes>
          <leafValues>
            4.1659602522850037e-01 -7.9098463058471680e-02</leafValues></_>
        <_>
          <internalNodes>
            0 -1 461 4.1491799056529999e-02</internalNodes>
          <leafValues>
            -2.9307652264833450e-02 6.6793912649154663e-01</leafValues></_>
        <_>
          <internalNodes>
            0 -1 546 2.0272344350814819e-02</internalNodes>
          <leafValues>
            5.7802990078926086e-02 -6.8490988016128540e-01</leafValues></_>
        <_>
          <internalNodes>
            0 -1 253 6.5546147525310516e-02</internalNodes>
          <leafValues>
            -6.7719414830207825e-02 6.7139178514480591e-01</leafValues></_>
        <_>
          <internalNodes>
            0 -1 362 1.4608806371688843e-01</internalNodes>
          <leafValues>
            5.4458569735288620e-02 -8.4694272279739380e-01</leafValues></_>
        <_>
          <internalNodes>
            0 -1 490 9.6639785915613174e-03</internalNodes>
          <leafValues>
            -6.7810319364070892e-02 5.5209088325500488e-01</leafValues></_>
        <_>
          <internalNodes>
            0 -1 234 -3.6905013257637620e-04</internalNodes>
          <leafValues>
            2.1115480363368988e-01 -1.3386559486389160e-01</leafValues></_>
        <_>
          <internalNodes>
            0 -1 590 -2.7090613730251789e-04</internalNodes>
          <leafValues>
            -2.5271356105804443e-01 1.2256212532520294e-01</leafValues></_>
        <_>
          <internalNodes>
            0 -1 590 2.6092302869074047e-04</internalNodes>
          <leafValues>
            9.9439255893230438e-02 -2.8238496184349060e-01</leafValues></_>
        <_>
          <internalNodes>
            0 -1 722 -3.5011634463444352e-04</internalNodes>
          <leafValues>
            2.0881922543048859e-01 -1.3389171659946442e-01</leafValues></_>
        <_>
          <internalNodes>
            0 -1 8 -3.6737936735153198e-01</internalNodes>
          <leafValues>
            9.3838185071945190e-01 -2.7525048702955246e-02</leafValues></_>
        <_>
          <internalNodes>
            0 -1 689 -5.1497681997716427e-03</internalNodes>
          <leafValues>
            -4.4029754400253296e-01 7.1301944553852081e-02</leafValues></_>
        <_>
          <internalNodes>
            0 -1 731 3.7407875061035156e-03</internalNodes>
          <leafValues>
            2.9207656159996986e-02 -8.7642407417297363e-01</leafValues></_>
        <_>
          <internalNodes>
            0 -1 610 -4.9998305737972260e-02</internalNodes>
          <leafValues>
            -6.6477966308593750e-01 3.0546013265848160e-02</leafValues></_>
        <_>
          <internalNodes>
            0 -1 445 -3.8737249560654163e-03</internalNodes>
          <leafValues>
            2.8073984384536743e-01 -1.0252095013856888e-01</leafValues></_>
        <_>
          <internalNodes>
            0 -1 548 -3.5671805962920189e-03</internalNodes>
          <leafValues>
            2.7910450100898743e-01 -1.0844860225915909e-01</leafValues></_>
        <_>
          <internalNodes>
            0 -1 559 -3.6259576678276062e-02</internalNodes>
          <leafValues>
            4.3990778923034668e-01 -6.5662898123264313e-02</leafValues></_>
        <_>
          <internalNodes>
            0 -1 347 -1.6722559928894043e-02</internalNodes>
          <leafValues>
            -8.3745992183685303e-01 3.8400568068027496e-02</leafValues></_>
        <_>
          <internalNodes>
            0 -1 113 5.3204514551907778e-04</internalNodes>
          <leafValues>
            -1.6588814556598663e-01 1.6115327179431915e-01</leafValues></_>
        <_>
          <internalNodes>
            0 -1 773 -2.8963765362277627e-04</internalNodes>
          <leafValues>
            1.8118737637996674e-01 -1.5333747863769531e-01</leafValues></_>
        <_>
          <internalNodes>
            0 -1 60 -1.0071903467178345e-02</internalNodes>
          <leafValues>
            -7.6517724990844727e-01 3.7892721593379974e-02</leafValues></_>
        <_>
          <internalNodes>
            0 -1 73 -1.9783787429332733e-02</internalNodes>
          <leafValues>
            4.7335827350616455e-01 -6.3501507043838501e-02</leafValues></_>
        <_>
          <internalNodes>
            0 -1 676 -7.0722065865993500e-03</internalNodes>
          <leafValues>
            3.0931150913238525e-01 -8.5831597447395325e-02</leafValues></_>
        <_>
          <internalNodes>
            0 -1 86 3.0164166819304228e-03</internalNodes>
          <leafValues>
            -1.6381500661373138e-01 1.6241969168186188e-01</leafValues></_>
        <_>
          <internalNodes>
            0 -1 465 1.4315539738163352e-04</internalNodes>
          <leafValues>
            1.2500403821468353e-01 -2.1536670625209808e-01</leafValues></_>
        <_>
          <internalNodes>
            0 -1 264 2.8016017749905586e-03</internalNodes>
          <leafValues>
            -1.2784197926521301e-01 2.5803235173225403e-01</leafValues></_>
        <_>
          <internalNodes>
            0 -1 214 -1.7892044037580490e-02</internalNodes>
          <leafValues>
            2.5829628109931946e-01 -1.1105106770992279e-01</leafValues></_>
        <_>
          <internalNodes>
            0 -1 141 3.5601673880591989e-04</internalNodes>
          <leafValues>
            1.5452696382999420e-01 -1.8772754073143005e-01</leafValues></_>
        <_>
          <internalNodes>
            0 -1 474 -7.5264647603034973e-03</internalNodes>
          <leafValues>
            3.7588673830032349e-01 -6.8698838353157043e-02</leafValues></_>
        <_>
          <internalNodes>
            0 -1 635 7.4792071245610714e-05</internalNodes>
          <leafValues>
            1.4902810752391815e-01 -2.4563780426979065e-01</leafValues></_>
        <_>
          <internalNodes>
            0 -1 720 3.5145329311490059e-03</internalNodes>
          <leafValues>
            -1.1321974545717239e-01 2.3193776607513428e-01</leafValues></_>
        <_>
          <internalNodes>
            0 -1 400 -6.4008995890617371e-02</internalNodes>
          <leafValues>
            6.2984991073608398e-01 -3.8892086595296860e-02</leafValues></_>
        <_>
          <internalNodes>
            0 -1 723 1.2286121491342783e-03</internalNodes>
          <leafValues>
            -1.2420441955327988e-01 2.2323842346668243e-01</leafValues></_>
        <_>
          <internalNodes>
            0 -1 649 5.3257081657648087e-02</internalNodes>
          <leafValues>
            3.6035139113664627e-02 -7.9040038585662842e-01</leafValues></_>
        <_>
          <internalNodes>
            0 -1 407 -4.2002964764833450e-03</internalNodes>
          <leafValues>
            2.9312080144882202e-01 -9.4345822930335999e-02</leafValues></_>
        <_>
          <internalNodes>
            0 -1 496 1.4803239610046148e-03</internalNodes>
          <leafValues>
            -1.1556266248226166e-01 2.1199311316013336e-01</leafValues></_>
        <_>
          <internalNodes>
            0 -1 670 -6.4756406936794519e-04</internalNodes>
          <leafValues>
            1.9665089249610901e-01 -1.4193919301033020e-01</leafValues></_>
        <_>
          <internalNodes>
            0 -1 811 -7.3603652417659760e-03</internalNodes>
          <leafValues>
            2.1796236932277679e-01 -1.1813610047101974e-01</leafValues></_>
        <_>
          <internalNodes>
            0 -1 827 1.5516838058829308e-02</internalNodes>
          <leafValues>
            -5.1247671246528625e-02 4.9556094408035278e-01</leafValues></_>
        <_>
          <internalNodes>
            0 -1 470 7.8797637252137065e-04</internalNodes>
          <leafValues>
            5.4955292493104935e-02 -5.7443469762802124e-01</leafValues></_></weakClassifiers></_>
    <!-- stage 7 -->
    <_>
      <maxWeakCount>36</maxWeakCount>
      <stageThreshold>-6.6675394773483276e-01</stageThreshold>
      <weakClassifiers>
        <_>
          <internalNodes>
            0 -1 643 1.5898870769888163e-03</internalNodes>
          <leafValues>
            4.0861812233924866e-01 -3.2467532157897949e-01</leafValues></_>
        <_>
          <internalNodes>
            0 -1 297 6.3123002648353577e-02</internalNodes>
          <leafValues>
            -8.6200632154941559e-02 5.9381592273712158e-01</leafValues></_>
        <_>
          <internalNodes>
            0 -1 91 6.9335989654064178e-02</internalNodes>
          <leafValues>
            -8.5535578429698944e-02 7.5096046924591064e-01</leafValues></_>
        <_>
          <internalNodes>
            0 -1 642 -2.6985822478309274e-04</internalNodes>
          <leafValues>
            -3.3617433905601501e-01 1.7930489778518677e-01</leafValues></_>
        <_>
          <internalNodes>
            0 -1 517 -2.3496720939874649e-02</internalNodes>
          <leafValues>
            5.7424974441528320e-01 -4.0438018739223480e-02</leafValues></_>
        <_>
          <internalNodes>
            0 -1 620 2.0455423742532730e-02</internalNodes>
          <leafValues>
            -1.2760975956916809e-01 3.1976860761642456e-01</leafValues></_>
        <_>
          <internalNodes>
            0 -1 463 6.8582464009523392e-03</internalNodes>
          <leafValues>
            -8.6424201726913452e-02 5.3178834915161133e-01</leafValues></_>
        <_>
          <internalNodes>
            0 -1 756 -4.5808020979166031e-02</internalNodes>
          <leafValues>
            4.8122921586036682e-01 -8.8359445333480835e-02</leafValues></_>
        <_>
          <internalNodes>
            0 -1 515 2.5898804888129234e-03</internalNodes>
          <leafValues>
            1.1287866532802582e-01 -4.0598753094673157e-01</leafValues></_>
        <_>
          <internalNodes>
            0 -1 356 -7.6694963499903679e-03</internalNodes>
          <leafValues>
            3.1212198734283447e-01 -1.4221091568470001e-01</leafValues></_>
        <_>
          <internalNodes>
            0 -1 803 -2.4899365380406380e-03</internalNodes>
          <leafValues>
            -3.8250768184661865e-01 1.1224966496229172e-01</leafValues></_>
        <_>
          <internalNodes>
            0 -1 702 3.1616289168596268e-02</internalNodes>
          <leafValues>
            -7.6655961573123932e-02 5.5330640077590942e-01</leafValues></_>
        <_>
          <internalNodes>
            0 -1 513 -3.6490581929683685e-02</internalNodes>
          <leafValues>
            2.9301553964614868e-01 -1.2959755957126617e-01</leafValues></_>
        <_>
          <internalNodes>
            0 -1 439 -1.2962086126208305e-02</internalNodes>
          <leafValues>
            3.4977594017982483e-01 -1.0820806026458740e-01</leafValues></_>
        <_>
          <internalNodes>
            0 -1 554 4.6360157430171967e-03</internalNodes>
          <leafValues>
            -6.6697157919406891e-02 4.5728534460067749e-01</leafValues></_>
        <_>
          <internalNodes>
            0 -1 753 -1.9183133263140917e-03</internalNodes>
          <leafValues>
            -6.4827901124954224e-01 5.8702941983938217e-02</leafValues></_>
        <_>
          <internalNodes>
            0 -1 471 9.8683836404234171e-04</internalNodes>
          <leafValues>
            5.6642621755599976e-02 -5.3831386566162109e-01</leafValues></_>
        <_>
          <internalNodes>
            0 -1 866 7.8618293628096581e-04</internalNodes>
          <leafValues>
            6.5459758043289185e-02 -4.0652313828468323e-01</leafValues></_>
        <_>
          <internalNodes>
            0 -1 498 1.7375873867422342e-03</internalNodes>
          <leafValues>
            -1.6086386144161224e-01 1.9728888571262360e-01</leafValues></_>
        <_>
          <internalNodes>
            0 -1 588 -7.7025213977321982e-04</internalNodes>
          <leafValues>
            -1.7495264112949371e-01 1.7346021533012390e-01</leafValues></_>
        <_>
          <internalNodes>
            0 -1 469 5.4182410240173340e-03</internalNodes>
          <leafValues>
            -8.6601212620735168e-02 3.9354673027992249e-01</leafValues></_>
        <_>
          <internalNodes>
            0 -1 792 4.1605178266763687e-03</internalNodes>
          <leafValues>
            5.3141206502914429e-02 -6.4088869094848633e-01</leafValues></_>
        <_>
          <internalNodes>
            0 -1 497 -5.4034749045968056e-03</internalNodes>
          <leafValues>
            3.3739456534385681e-01 -9.4885215163230896e-02</leafValues></_>
        <_>
          <internalNodes>
            0 -1 127 2.0992480218410492e-02</internalNodes>
          <leafValues>
            -3.8122367113828659e-02 6.6884106397628784e-01</leafValues></_>
        <_>
          <internalNodes>
            0 -1 739 -1.8104305490851402e-03</internalNodes>
          <leafValues>
            -6.2123209238052368e-01 5.2763234823942184e-02</leafValues></_>
        <_>
          <internalNodes>
            0 -1 168 3.7206374108791351e-03</internalNodes>
          <leafValues>
            2.7563104405999184e-02 -9.0731644630432129e-01</leafValues></_>
        <_>
          <internalNodes>
            0 -1 736 3.0251566320657730e-02</internalNodes>
          <leafValues>
            -7.5336515903472900e-02 4.3431556224822998e-01</leafValues></_>
        <_>
          <internalNodes>
            0 -1 785 -1.9256962696090341e-03</internalNodes>
          <leafValues>
            1.8648155033588409e-01 -1.7366985976696014e-01</leafValues></_>
        <_>
          <internalNodes>
            0 -1 823 -6.2321615405380726e-04</internalNodes>
          <leafValues>
            -3.8866388797760010e-01 8.3436474204063416e-02</leafValues></_>
        <_>
          <internalNodes>
            0 -1 857 2.4823977146297693e-03</internalNodes>
          <leafValues>
            6.5609119832515717e-02 -4.8873850703239441e-01</leafValues></_>
        <_>
          <internalNodes>
            0 -1 98 7.4302777647972107e-04</internalNodes>
          <leafValues>
            -1.5648725628852844e-01 2.0582094788551331e-01</leafValues></_>
        <_>
          <internalNodes>
            0 -1 25 -3.8979470729827881e-01</internalNodes>
          <leafValues>
            -9.6545618772506714e-01 3.3562652766704559e-02</leafValues></_>
        <_>
          <internalNodes>
            0 -1 743 -7.3621398769319057e-05</internalNodes>
          <leafValues>
            -2.1621447801589966e-01 1.2758773565292358e-01</leafValues></_>
        <_>
          <internalNodes>
            0 -1 778 2.6425510644912720e-02</internalNodes>
          <leafValues>
            -6.7200690507888794e-02 4.7956582903862000e-01</leafValues></_>
        <_>
          <internalNodes>
            0 -1 314 -1.3638375094160438e-03</internalNodes>
          <leafValues>
            -2.9852849245071411e-01 1.0795713961124420e-01</leafValues></_>
        <_>
          <internalNodes>
            0 -1 798 -1.1715708300471306e-02</internalNodes>
          <leafValues>
            -3.9244303107261658e-01 7.8548625111579895e-02</leafValues></_></weakClassifiers></_>
    <!-- stage 8 -->
    <_>
      <maxWeakCount>48</maxWeakCount>
      <stageThreshold>-7.5202751159667969e-01</stageThreshold>
      <weakClassifiers>
        <_>
          <internalNodes>
            0 -1 92 7.0683605968952179e-02</internalNodes>
          <leafValues>
            2.5303089618682861e-01 7.9683971405029297e-01</leafValues></_>
        <_>
          <internalNodes>
            0 -1 258 4.0100671350955963e-02</internalNodes>
          <leafValues>
            -7.7586755156517029e-02 4.5942437648773193e-01</leafValues></_>
        <_>
          <internalNodes>
            0 -1 180 -1.5466576814651489e-01</internalNodes>
          <leafValues>
            5.1486593484878540e-01 -6.5619759261608124e-02</leafValues></_>
        <_>
          <internalNodes>
            0 -1 605 -5.2637439221143723e-03</internalNodes>
          <leafValues>
            3.3143317699432373e-01 -1.1254998296499252e-01</leafValues></_>
        <_>
          <internalNodes>
            0 -1 179 -1.8533169059082866e-03</internalNodes>
          <leafValues>
            2.8311437368392944e-01 -1.1988469958305359e-01</leafValues></_>
        <_>
          <internalNodes>
            0 -1 352 4.8132836818695068e-03</internalNodes>
          <leafValues>
            -1.4739117026329041e-01 2.4447727203369141e-01</leafValues></_>
        <_>
          <internalNodes>
            0 -1 106 -1.0818917071446776e-03</internalNodes>
          <leafValues>
            2.8803613781929016e-01 -1.1856504529714584e-01</leafValues></_>
        <_>
          <internalNodes>
            0 -1 819 -8.4131176117807627e-04</internalNodes>
          <leafValues>
            2.4219219386577606e-01 -1.2311635911464691e-01</leafValues></_>
        <_>
          <internalNodes>
            0 -1 604 4.6257223002612591e-03</internalNodes>
          <leafValues>
            -8.4661647677421570e-02 3.3813270926475525e-01</leafValues></_>
        <_>
          <internalNodes>
            0 -1 713 -3.7014791741967201e-03</internalNodes>
          <leafValues>
            -3.4334352612495422e-01 8.9630812406539917e-02</leafValues></_>
        <_>
          <internalNodes>
            0 -1 289 3.2521907240152359e-02</internalNodes>
          <leafValues>
            6.0085274279117584e-02 -5.1708817481994629e-01</leafValues></_>
        <_>
          <internalNodes>
            0 -1 300 1.0455321520566940e-02</internalNodes>
          <leafValues>
            -8.3220779895782471e-02 3.9968857169151306e-01</leafValues></_>
        <_>
          <internalNodes>
            0 -1 457 4.3866224586963654e-03</internalNodes>
          <leafValues>
            -1.2659452855587006e-01 2.7960553765296936e-01</leafValues></_>
        <_>
          <internalNodes>
            0 -1 90 1.0294776409864426e-01</internalNodes>
          <leafValues>
            5.5038683116436005e-02 -6.2747210264205933e-01</leafValues></_>
        <_>
          <internalNodes>
            0 -1 746 2.6138210669159889e-03</internalNodes>
          <leafValues>
            3.3219672739505768e-02 -9.2640751600265503e-01</leafValues></_>
        <_>
          <internalNodes>
            0 -1 52 -2.1155988797545433e-03</internalNodes>
          <leafValues>
            -6.3975900411605835e-01 3.8126867264509201e-02</leafValues></_>
        <_>
          <internalNodes>
            0 -1 121 5.2785992622375488e-02</internalNodes>
          <leafValues>
            -6.1525266617536545e-02 4.9705129861831665e-01</leafValues></_>
        <_>
          <internalNodes>
            0 -1 9 -1.4926607720553875e-02</internalNodes>
          <leafValues>
            2.1920986473560333e-01 -1.2417642772197723e-01</leafValues></_>
        <_>
          <internalNodes>
            0 -1 201 4.3411951512098312e-02</internalNodes>
          <leafValues>
            8.0343455076217651e-02 -3.5984787344932556e-01</leafValues></_>
        <_>
          <internalNodes>
            0 -1 761 -8.3666061982512474e-03</internalNodes>
          <leafValues>
            3.0608287453651428e-01 -9.6417948603630066e-02</leafValues></_>
        <_>
          <internalNodes>
            0 -1 861 5.8620413765311241e-03</internalNodes>
          <leafValues>
            3.3744476735591888e-02 -9.6652531623840332e-01</leafValues></_>
        <_>
          <internalNodes>
            0 -1 669 2.6488774456083775e-03</internalNodes>
          <leafValues>
            3.6147534847259521e-02 -6.3561910390853882e-01</leafValues></_>
        <_>
          <internalNodes>
            0 -1 67 -3.1971096177585423e-05</internalNodes>
          <leafValues>
            -2.1036879718303680e-01 1.2436380237340927e-01</leafValues></_>
        <_>
          <internalNodes>
            0 -1 659 -4.6778060495853424e-03</internalNodes>
          <leafValues>
            2.3853510618209839e-01 -1.1128897964954376e-01</leafValues></_>
        <_>
          <internalNodes>
            0 -1 365 -4.0126591920852661e-03</internalNodes>
          <leafValues>
            3.3598712086677551e-01 -9.0239904820919037e-02</leafValues></_>
        <_>
          <internalNodes>
            0 -1 246 -1.5045771375298500e-02</internalNodes>
          <leafValues>
            2.1864213049411774e-01 -1.2344258278608322e-01</leafValues></_>
        <_>
          <internalNodes>
            0 -1 499 3.9753206074237823e-03</internalNodes>
          <leafValues>
            6.1920985579490662e-02 -4.4320523738861084e-01</leafValues></_>
        <_>
          <internalNodes>
            0 -1 531 -1.2291225604712963e-02</internalNodes>
          <leafValues>
            3.7787294387817383e-01 -7.5405657291412354e-02</leafValues></_>
        <_>
          <internalNodes>
            0 -1 458 -1.0861670598387718e-02</internalNodes>
          <leafValues>
            3.1342628598213196e-01 -1.2356076389551163e-01</leafValues></_>
        <_>
          <internalNodes>
            0 -1 260 5.1003536209464073e-03</internalNodes>
          <leafValues>
            -9.9118947982788086e-02 3.0087798833847046e-01</leafValues></_>
        <_>
          <internalNodes>
            0 -1 550 5.9133139438927174e-03</internalNodes>
          <leafValues>
            4.0382858365774155e-02 -7.9024523496627808e-01</leafValues></_>
        <_>
          <internalNodes>
            0 -1 667 -6.5448340028524399e-03</internalNodes>
          <leafValues>
            -7.3079508543014526e-01 3.2381489872932434e-02</leafValues></_>
        <_>
          <internalNodes>
            0 -1 520 -9.7036380320787430e-03</internalNodes>
          <leafValues>
            4.9065145850181580e-01 -6.4596720039844513e-02</leafValues></_>
        <_>
          <internalNodes>
            0 -1 218 -1.1559433303773403e-02</internalNodes>
          <leafValues>
            2.5956118106842041e-01 -1.0678049921989441e-01</leafValues></_>
        <_>
          <internalNodes>
            0 -1 414 -7.2316685691475868e-03</internalNodes>
          <leafValues>
            3.3461344242095947e-01 -7.6118953526020050e-02</leafValues></_>
        <_>
          <internalNodes>
            0 -1 777 1.0657200589776039e-02</internalNodes>
          <leafValues>
            -7.1514733135700226e-02 3.6948594450950623e-01</leafValues></_>
        <_>
          <internalNodes>
            0 -1 544 -3.0714804306626320e-03</internalNodes>
          <leafValues>
            -2.8726971149444580e-01 1.0335478186607361e-01</leafValues></_>
        <_>
          <internalNodes>
            0 -1 548 -8.0300085246562958e-03</internalNodes>
          <leafValues>
            4.2859998345375061e-01 -7.1159012615680695e-02</leafValues></_>
        <_>
          <internalNodes>
            0 -1 640 -1.2576227891258895e-04</internalNodes>
          <leafValues>
            1.8385812640190125e-01 -1.7337448894977570e-01</leafValues></_>
        <_>
          <internalNodes>
            0 -1 658 3.1734656076878309e-03</internalNodes>
          <leafValues>
            -1.0893788188695908e-01 2.6440382003784180e-01</leafValues></_>
        <_>
          <internalNodes>
            0 -1 511 -8.8550709187984467e-03</internalNodes>
          <leafValues>
            2.8254285454750061e-01 -1.1561681330204010e-01</leafValues></_>
        <_>
          <internalNodes>
            0 -1 161 -1.2329489436524455e-05</internalNodes>
          <leafValues>
            -1.9616337120532990e-01 1.6680721938610077e-01</leafValues></_>
        <_>
          <internalNodes>
            0 -1 401 1.1611289810389280e-03</internalNodes>
          <leafValues>
            7.9709284007549286e-02 -3.8745918869972229e-01</leafValues></_>
        <_>
          <internalNodes>
            0 -1 712 1.0055073071271181e-03</internalNodes>
          <leafValues>
            -1.4763468503952026e-01 2.0907396078109741e-01</leafValues></_>
        <_>
          <internalNodes>
            0 -1 219 -1.7436586320400238e-02</internalNodes>
          <leafValues>
            -7.2511643171310425e-01 4.8268821090459824e-02</leafValues></_>
        <_>
          <internalNodes>
            0 -1 162 -6.1185599770396948e-04</internalNodes>
          <leafValues>
            -2.4084398150444031e-01 1.1105033010244370e-01</leafValues></_>
        <_>
          <internalNodes>
            0 -1 848 -9.4143394380807877e-03</internalNodes>
          <leafValues>
            6.6570991277694702e-01 -4.4041395187377930e-02</leafValues></_>
        <_>
          <internalNodes>
            0 -1 828 6.0827927663922310e-03</internalNodes>
          <leafValues>
            3.5812780261039734e-02 -9.7680735588073730e-01</leafValues></_></weakClassifiers></_>
    <!-- stage 9 -->
    <_>
      <maxWeakCount>55</maxWeakCount>
      <stageThreshold>-6.7019319534301758e-01</stageThreshold>
      <weakClassifiers>
        <_>
          <internalNodes>
            0 -1 623 6.3341148197650909e-03</internalNodes>
          <leafValues>
            1.4285714924335480e-01 5.1978892087936401e-01</leafValues></_>
        <_>
          <internalNodes>
            0 -1 441 -3.7245068233460188e-03</internalNodes>
          <leafValues>
            3.5858786106109619e-01 -7.9242080450057983e-02</leafValues></_>
        <_>
          <internalNodes>
            0 -1 553 -6.0969120822846889e-03</internalNodes>
          <leafValues>
            -4.5920693874359131e-01 6.1126820743083954e-02</leafValues></_>
        <_>
          <internalNodes>
            0 -1 542 2.5816606357693672e-03</internalNodes>
          <leafValues>
            3.7986494600772858e-02 -4.0168070793151855e-01</leafValues></_>
        <_>
          <internalNodes>
            0 -1 622 -1.0846985504031181e-02</internalNodes>
          <leafValues>
            6.4729624986648560e-01 -3.1647007912397385e-02</leafValues></_>
        <_>
          <internalNodes>
            0 -1 557 -8.4768608212471008e-03</internalNodes>
          <leafValues>
            2.7032828330993652e-01 -1.1786169558763504e-01</leafValues></_>
        <_>
          <internalNodes>
            0 -1 403 -4.2099449783563614e-03</internalNodes>
          <leafValues>
            3.4925201535224915e-01 -8.2225963473320007e-02</leafValues></_>
        <_>
          <internalNodes>
            0 -1 486 1.3571688905358315e-03</internalNodes>
          <leafValues>
            -1.2673614919185638e-01 2.8788253664970398e-01</leafValues></_>
        <_>
          <internalNodes>
            0 -1 428 5.4239961318671703e-03</internalNodes>
          <leafValues>
            -1.6453240811824799e-01 1.8205216526985168e-01</leafValues></_>
        <_>
          <internalNodes>
            0 -1 502 7.3746987618505955e-03</internalNodes>
          <leafValues>
            -9.6014946699142456e-02 2.8973397612571716e-01</leafValues></_>
        <_>
          <internalNodes>
            0 -1 194 -8.4304049611091614e-02</internalNodes>
          <leafValues>
            -7.7816641330718994e-01 3.3317703753709793e-02</leafValues></_>
        <_>
          <internalNodes>
            0 -1 118 -4.0808683261275291e-03</internalNodes>
          <leafValues>
            -4.6077221632003784e-01 5.1417119801044464e-02</leafValues></_>
        <_>
          <internalNodes>
            0 -1 332 9.2400405555963516e-03</internalNodes>
          <leafValues>
            3.3687755465507507e-02 -7.5833863019943237e-01</leafValues></_>
        <_>
          <internalNodes>
            0 -1 270 -3.2235566526651382e-02</internalNodes>
          <leafValues>
            -4.5139089226722717e-01 5.1856573671102524e-02</leafValues></_>
        <_>
          <internalNodes>
            0 -1 32 -1.0097931325435638e-01</internalNodes>
          <leafValues>
            -7.8384834527969360e-01 2.9588514938950539e-02</leafValues></_>
        <_>
          <internalNodes>
            0 -1 626 -1.3204743154346943e-03</internalNodes>
          <leafValues>
            5.1380109041929245e-02 -4.3987944722175598e-01</leafValues></_>
        <_>
          <internalNodes>
            0 -1 213 -7.7881112694740295e-02</internalNodes>
          <leafValues>
            4.4408190250396729e-01 -5.4119944572448730e-02</leafValues></_>
        <_>
          <internalNodes>
            0 -1 136 -1.8408977193757892e-03</internalNodes>
          <leafValues>
            2.7643245458602905e-01 -1.0260394215583801e-01</leafValues></_>
        <_>
          <internalNodes>
            0 -1 335 -2.7685959357768297e-03</internalNodes>
          <leafValues>
            3.2403668761253357e-01 -7.2756044566631317e-02</leafValues></_>
        <_>
          <internalNodes>
            0 -1 166 1.6083267983049154e-03</internalNodes>
          <leafValues>
            -1.7906427383422852e-01 1.4858373999595642e-01</leafValues></_>
        <_>
          <internalNodes>
            0 -1 351 9.6264734864234924e-02</internalNodes>
          <leafValues>
            9.0404309332370758e-02 -3.9074751734733582e-01</leafValues></_>
        <_>
          <internalNodes>
            0 -1 535 6.0852244496345520e-03</internalNodes>
          <leafValues>
            -7.3974370956420898e-02 3.8128581643104553e-01</leafValues></_>
        <_>
          <internalNodes>
            0 -1 291 3.1338119879364967e-03</internalNodes>
          <leafValues>
            8.3906076848506927e-02 -3.0975368618965149e-01</leafValues></_>
        <_>
          <internalNodes>
            0 -1 244 -2.3328703828155994e-03</internalNodes>
          <leafValues>
            -5.3710144758224487e-01 4.3212428689002991e-02</leafValues></_>
        <_>
          <internalNodes>
            0 -1 851 -4.8427637666463852e-03</internalNodes>
          <leafValues>
            -6.1663359403610229e-01 3.5084076225757599e-02</leafValues></_>
        <_>
          <internalNodes>
            0 -1 353 1.7519118264317513e-03</internalNodes>
          <leafValues>
            -1.0801526904106140e-01 2.1259425580501556e-01</leafValues></_>
        <_>
          <internalNodes>
            0 -1 729 5.2153591241221875e-05</internalNodes>
          <leafValues>
            1.2013968080282211e-01 -1.8506257236003876e-01</leafValues></_>
        <_>
          <internalNodes>
            0 -1 44 -6.1143770813941956e-02</internalNodes>
          <leafValues>
            3.9410746097564697e-01 -5.8962054550647736e-02</leafValues></_>
        <_>
          <internalNodes>
            0 -1 212 7.1022678166627884e-03</internalNodes>
          <leafValues>
            -1.1324948817491531e-01 2.4543510377407074e-01</leafValues></_>
        <_>
          <internalNodes>
            0 -1 476 -1.4768578112125397e-03</internalNodes>
          <leafValues>
            -2.1358844637870789e-01 1.1511330306529999e-01</leafValues></_>
        <_>
          <internalNodes>
            0 -1 342 6.1103850603103638e-03</internalNodes>
          <leafValues>
            4.0301151573657990e-02 -5.4185771942138672e-01</leafValues></_>
        <_>
          <internalNodes>
            0 -1 838 -5.3613481577485800e-04</internalNodes>
          <leafValues>
            2.4923309683799744e-01 -1.0218744724988937e-01</leafValues></_>
        <_>
          <internalNodes>
            0 -1 205 2.3317676037549973e-02</internalNodes>
          <leafValues>
            -2.7752975001931190e-02 7.8990352153778076e-01</leafValues></_>
        <_>
          <internalNodes>
            0 -1 286 1.9825257360935211e-02</internalNodes>
          <leafValues>
            3.5292968153953552e-02 -8.3156430721282959e-01</leafValues></_>
        <_>
          <internalNodes>
            0 -1 36 -1.4156405813992023e-03</internalNodes>
          <leafValues>
            -2.0014528930187225e-01 1.1140312999486923e-01</leafValues></_>
        <_>
          <internalNodes>
            0 -1 225 6.6497159423306584e-05</internalNodes>
          <leafValues>
            1.2514345347881317e-01 -1.9574981927871704e-01</leafValues></_>
        <_>
          <internalNodes>
            0 -1 3 -6.7530304193496704e-02</internalNodes>
          <leafValues>
            -4.4260671734809875e-01 5.5444035679101944e-02</leafValues></_>
        <_>
          <internalNodes>
            0 -1 674 5.1285079680383205e-03</internalNodes>
          <leafValues>
            -1.2278815358877182e-01 1.9724114239215851e-01</leafValues></_>
        <_>
          <internalNodes>
            0 -1 742 -3.5540520912036300e-05</internalNodes>
          <leafValues>
            -1.6072346270084381e-01 1.4253526926040649e-01</leafValues></_>
        <_>
          <internalNodes>
            0 -1 809 -3.1137624755501747e-03</internalNodes>
          <leafValues>
            1.7056831717491150e-01 -1.6300737857818604e-01</leafValues></_>
        <_>
          <internalNodes>
            0 -1 751 1.8499661237001419e-03</internalNodes>
          <leafValues>
            -1.2211224436759949e-01 2.5877121090888977e-01</leafValues></_>
        <_>
          <internalNodes>
            0 -1 793 6.8926718086004257e-03</internalNodes>
          <leafValues>
            4.6469148248434067e-02 -6.0017943382263184e-01</leafValues></_>
        <_>
          <internalNodes>
            0 -1 805 -6.0679418966174126e-03</internalNodes>
          <leafValues>
            1.8389108777046204e-01 -1.3266408443450928e-01</leafValues></_>
        <_>
          <internalNodes>
            0 -1 144 3.6450915038585663e-02</internalNodes>
          <leafValues>
            -4.1579261422157288e-02 6.2521433830261230e-01</leafValues></_>
        <_>
          <internalNodes>
            0 -1 204 1.4647450298070908e-02</internalNodes>
          <leafValues>
            -2.6901159435510635e-02 6.6018670797348022e-01</leafValues></_>
        <_>
          <internalNodes>
            0 -1 445 -4.7964495606720448e-03</internalNodes>
          <leafValues>
            2.7436724305152893e-01 -8.1693738698959351e-02</leafValues></_>
        <_>
          <internalNodes>
            0 -1 38 1.6549762221984565e-04</internalNodes>
          <leafValues>
            1.2496562302112579e-01 -1.9204536080360413e-01</leafValues></_>
        <_>
          <internalNodes>
            0 -1 616 7.6213665306568146e-04</internalNodes>
          <leafValues>
            -1.1363518983125687e-01 2.0985083281993866e-01</leafValues></_>
        <_>
          <internalNodes>
            0 -1 66 -1.9771968945860863e-03</internalNodes>
          <leafValues>
            -2.7208012342453003e-01 8.4764458239078522e-02</leafValues></_>
        <_>
          <internalNodes>
            0 -1 23 9.2524918727576733e-04</internalNodes>
          <leafValues>
            -1.2669034302234650e-01 1.8056607246398926e-01</leafValues></_>
        <_>
          <internalNodes>
            0 -1 698 2.1889321506023407e-03</internalNodes>
          <leafValues>
            -1.0369569808244705e-01 2.1779376268386841e-01</leafValues></_>
        <_>
          <internalNodes>
            0 -1 115 -1.7905359854921699e-03</internalNodes>
          <leafValues>
            -3.3926689624786377e-01 6.7017726600170135e-02</leafValues></_>
        <_>
          <internalNodes>
            0 -1 110 4.1451113065704703e-04</internalNodes>
          <leafValues>
            -1.2160713970661163e-01 2.3884806036949158e-01</leafValues></_>
        <_>
          <internalNodes>
            0 -1 41 -2.7862867340445518e-02</internalNodes>
          <leafValues>
            -6.7204123735427856e-01 4.1989814490079880e-02</leafValues></_>
        <_>
          <internalNodes>
            0 -1 174 -1.8554166308604181e-04</internalNodes>
          <leafValues>
            1.9126358628273010e-01 -1.4031739532947540e-01</leafValues></_></weakClassifiers></_>
    <!-- stage 10 -->
    <_>
      <maxWeakCount>58</maxWeakCount>
      <stageThreshold>-6.6477203369140625e-01</stageThreshold>
      <weakClassifiers>
        <_>
          <internalNodes>
            0 -1 371 -4.5994054526090622e-03</internalNodes>
          <leafValues>
            -9.8360655829310417e-03 4.2092049121856689e-01</leafValues></_>
        <_>
          <internalNodes>
            0 -1 238 -1.6284734010696411e-01</internalNodes>
          <leafValues>
            6.4695399999618530e-01 -4.5316986739635468e-02</leafValues></_>
        <_>
          <internalNodes>
            0 -1 238 -1.6281914710998535e-01</internalNodes>
          <leafValues>
            -1. 5.4999458370730281e-04</leafValues></_>
        <_>
          <internalNodes>
            0 -1 238 -1.6203273832798004e-01</internalNodes>
          <leafValues>
            8.0602979660034180e-01 -1.2686342233791947e-03</leafValues></_>
        <_>
          <internalNodes>
            0 -1 284 1.1521811783313751e-01</internalNodes>
          <leafValues>
            -8.9546293020248413e-02 4.1113376617431641e-01</leafValues></_>
        <_>
          <internalNodes>
            0 -1 709 -4.3455280363559723e-02</internalNodes>
          <leafValues>
            -7.8338193893432617e-01 8.2266382873058319e-02</leafValues></_>
        <_>
          <internalNodes>
            0 -1 135 2.4589866399765015e-02</internalNodes>
          <leafValues>
            -5.7456661015748978e-02 4.9276146292686462e-01</leafValues></_>
        <_>
          <internalNodes>
            0 -1 79 3.1936381012201309e-02</internalNodes>
          <leafValues>
            7.3280311189591885e-03 -6.9670003652572632e-01</leafValues></_>
        <_>
          <internalNodes>
            0 -1 239 2.6291683316230774e-03</internalNodes>
          <leafValues>
            1.3121484220027924e-01 -2.6935550570487976e-01</leafValues></_>
        <_>
          <internalNodes>
            0 -1 695 5.8452211320400238e-02</internalNodes>
          <leafValues>
            -3.3592306077480316e-02 6.9859713315963745e-01</leafValues></_>
        <_>
          <internalNodes>
            0 -1 466 2.4203788489103317e-03</internalNodes>
          <leafValues>
            8.8100969791412354e-02 -2.6930904388427734e-01</leafValues></_>
        <_>
          <internalNodes>
            0 -1 452 -6.1189327389001846e-03</internalNodes>
          <leafValues>
            2.8786739706993103e-01 -9.4711862504482269e-02</leafValues></_>
        <_>
          <internalNodes>
            0 -1 673 -1.1403511278331280e-02</internalNodes>
          <leafValues>
            3.9687940478324890e-01 -8.0467909574508667e-02</leafValues></_>
        <_>
          <internalNodes>
            0 -1 39 6.2825595960021019e-03</internalNodes>
          <leafValues>
            5.4849404841661453e-02 -4.6973255276679993e-01</leafValues></_>
        <_>
          <internalNodes>
            0 -1 317 -1.9699139520525932e-03</internalNodes>
          <leafValues>
            -3.9226743578910828e-01 6.0713246464729309e-02</leafValues></_>
        <_>
          <internalNodes>
            0 -1 531 2.3179993033409119e-02</internalNodes>
          <leafValues>
            -4.8290297389030457e-02 5.2919566631317139e-01</leafValues></_>
        <_>
          <internalNodes>
            0 -1 578 -7.1393093094229698e-04</internalNodes>
          <leafValues>
            -1.4996309578418732e-01 2.0362703502178192e-01</leafValues></_>
        <_>
          <internalNodes>
            0 -1 529 -5.1039578393101692e-03</internalNodes>
          <leafValues>
            8.8319920003414154e-02 -2.9103371500968933e-01</leafValues></_>
        <_>
          <internalNodes>
            0 -1 627 4.2788246646523476e-03</internalNodes>
          <leafValues>
            -6.7506700754165649e-02 4.6332404017448425e-01</leafValues></_>
        <_>
          <internalNodes>
            0 -1 55 1.6110911965370178e-01</internalNodes>
          <leafValues>
            -3.8669761270284653e-02 5.6858837604522705e-01</leafValues></_>
        <_>
          <internalNodes>
            0 -1 216 1.8188256770372391e-02</internalNodes>
          <leafValues>
            -5.8030847460031509e-02 4.1588935256004333e-01</leafValues></_>
        <_>
          <internalNodes>
            0 -1 138 7.9702436923980713e-03</internalNodes>
          <leafValues>
            -9.4123765826225281e-02 2.5342473387718201e-01</leafValues></_>
        <_>
          <internalNodes>
            0 -1 377 2.8780691325664520e-02</internalNodes>
          <leafValues>
            3.8852602243423462e-02 -6.8611961603164673e-01</leafValues></_>
        <_>
          <internalNodes>
            0 -1 178 3.2599435653537512e-03</internalNodes>
          <leafValues>
            -1.4267501235008240e-01 1.9509312510490417e-01</leafValues></_>
        <_>
          <internalNodes>
            0 -1 796 6.5279018599539995e-04</internalNodes>
          <leafValues>
            -1.4681409299373627e-01 1.6062331199645996e-01</leafValues></_>
        <_>
          <internalNodes>
            0 -1 766 -1.0032470338046551e-02</internalNodes>
          <leafValues>
            -8.8648563623428345e-01 3.3596817404031754e-02</leafValues></_>
        <_>
          <internalNodes>
            0 -1 592 -1.8096684943884611e-03</internalNodes>
          <leafValues>
            1.5846130251884460e-01 -1.4821253716945648e-01</leafValues></_>
        <_>
          <internalNodes>
            0 -1 265 2.5990266352891922e-02</internalNodes>
          <leafValues>
            -9.9508531391620636e-02 2.6452231407165527e-01</leafValues></_>
        <_>
          <internalNodes>
            0 -1 749 2.0108534954488277e-03</internalNodes>
          <leafValues>
            7.8443765640258789e-02 -3.0004048347473145e-01</leafValues></_>
        <_>
          <internalNodes>
            0 -1 416 -1.9563384354114532e-02</internalNodes>
          <leafValues>
            3.6940222978591919e-01 -6.6995009779930115e-02</leafValues></_>
        <_>
          <internalNodes>
            0 -1 421 8.4409071132540703e-03</internalNodes>
          <leafValues>
            -1.4044754207134247e-01 1.8151898682117462e-01</leafValues></_>
        <_>
          <internalNodes>
            0 -1 322 5.4742459207773209e-02</internalNodes>
          <leafValues>
            3.8171488791704178e-02 -6.2165540456771851e-01</leafValues></_>
        <_>
          <internalNodes>
            0 -1 345 -1.5757745131850243e-04</internalNodes>
          <leafValues>
            1.8224102258682251e-01 -1.3511154055595398e-01</leafValues></_>
        <_>
          <internalNodes>
            0 -1 839 -4.2507454054430127e-04</internalNodes>
          <leafValues>
            -2.1665099263191223e-01 1.1905902624130249e-01</leafValues></_>
        <_>
          <internalNodes>
            0 -1 586 -3.6407867446541786e-04</internalNodes>
          <leafValues>
            -2.7088296413421631e-01 9.1413237154483795e-02</leafValues></_>
        <_>
          <internalNodes>
            0 -1 586 4.0645862463861704e-04</internalNodes>
          <leafValues>
            9.4232887029647827e-02 -2.7378362417221069e-01</leafValues></_>
        <_>
          <internalNodes>
            0 -1 431 2.7934538200497627e-02</internalNodes>
          <leafValues>
            -4.6134743839502335e-02 5.2454316616058350e-01</leafValues></_>
        <_>
          <internalNodes>
            0 -1 320 -1.3202967122197151e-02</internalNodes>
          <leafValues>
            2.7645668387413025e-01 -8.1521451473236084e-02</leafValues></_>
        <_>
          <internalNodes>
            0 -1 13 3.0657090246677399e-02</internalNodes>
          <leafValues>
            2.7988284826278687e-02 -7.9663884639739990e-01</leafValues></_>
        <_>
          <internalNodes>
            0 -1 555 -3.9192712865769863e-03</internalNodes>
          <leafValues>
            3.5240685939788818e-01 -7.0635855197906494e-02</leafValues></_>
        <_>
          <internalNodes>
            0 -1 655 -8.2029020413756371e-03</internalNodes>
          <leafValues>
            3.6130094528198242e-01 -6.7057475447654724e-02</leafValues></_>
        <_>
          <internalNodes>
            0 -1 163 -8.7380543351173401e-02</internalNodes>
          <leafValues>
            6.5544283390045166e-01 -3.1548861414194107e-02</leafValues></_>
        <_>
          <internalNodes>
            0 -1 782 -2.2881585173308849e-03</internalNodes>
          <leafValues>
            -4.5116680860519409e-01 5.9979327023029327e-02</leafValues></_>
        <_>
          <internalNodes>
            0 -1 126 4.4755125418305397e-03</internalNodes>
          <leafValues>
            -7.7188745141029358e-02 3.5098314285278320e-01</leafValues></_>
        <_>
          <internalNodes>
            0 -1 760 -8.4776235744357109e-03</internalNodes>
          <leafValues>
            -6.8877279758453369e-01 4.0936153382062912e-02</leafValues></_>
        <_>
          <internalNodes>
            0 -1 169 -5.3697087423643097e-05</internalNodes>
          <leafValues>
            -1.9035051763057709e-01 1.3303829729557037e-01</leafValues></_>
        <_>
          <internalNodes>
            0 -1 50 2.2820043377578259e-03</internalNodes>
          <leafValues>
            4.6996686607599258e-02 -5.2731466293334961e-01</leafValues></_>
        <_>
          <internalNodes>
            0 -1 398 -5.1317766308784485e-02</internalNodes>
          <leafValues>
            3.9958834648132324e-01 -6.4598381519317627e-02</leafValues></_>
        <_>
          <internalNodes>
            0 -1 451 3.7898559123277664e-02</internalNodes>
          <leafValues>
            -4.4835951179265976e-02 5.5897521972656250e-01</leafValues></_>
        <_>
          <internalNodes>
            0 -1 209 -6.1853792518377304e-02</internalNodes>
          <leafValues>
            -8.4841132164001465e-01 3.4606419503688812e-02</leafValues></_>
        <_>
          <internalNodes>
            0 -1 146 -2.0433912053704262e-02</internalNodes>
          <leafValues>
            4.4264525175094604e-01 -6.2616042792797089e-02</leafValues></_>
        <_>
          <internalNodes>
            0 -1 143 9.4668641686439514e-03</internalNodes>
          <leafValues>
            3.5930592566728592e-02 -7.5807166099548340e-01</leafValues></_>
        <_>
          <internalNodes>
            0 -1 277 1.2474115937948227e-03</internalNodes>
          <leafValues>
            -7.2954051196575165e-02 3.5254007577896118e-01</leafValues></_>
        <_>
          <internalNodes>
            0 -1 684 -3.8745934143662453e-03</internalNodes>
          <leafValues>
            -5.5087578296661377e-01 4.8689201474189758e-02</leafValues></_>
        <_>
          <internalNodes>
            0 -1 164 -2.8898276388645172e-02</internalNodes>
          <leafValues>
            -5.1347774267196655e-01 3.9341427385807037e-02</leafValues></_>
        <_>
          <internalNodes>
            0 -1 686 -3.7532798945903778e-02</internalNodes>
          <leafValues>
            -5.9813332557678223e-01 3.6177944391965866e-02</leafValues></_>
        <_>
          <internalNodes>
            0 -1 349 1.6973870806396008e-03</internalNodes>
          <leafValues>
            3.9366040378808975e-02 -5.5575889348983765e-01</leafValues></_>
        <_>
          <internalNodes>
            0 -1 587 -4.6315917279571295e-04</internalNodes>
          <leafValues>
            -2.1994334459304810e-01 1.0274537652730942e-01</leafValues></_></weakClassifiers></_>
    <!-- stage 11 -->
    <_>
      <maxWeakCount>57</maxWeakCount>
      <stageThreshold>-5.5542850494384766e-01</stageThreshold>
      <weakClassifiers>
        <_>
          <internalNodes>
            0 -1 29 1.0268563032150269e-01</internalNodes>
          <leafValues>
            2.7279663085937500e-01 7.5197887420654297e-01</leafValues></_>
        <_>
          <internalNodes>
            0 -1 632 -2.1639867918565869e-04</internalNodes>
          <leafValues>
            1.7183057963848114e-01 -1.9609118998050690e-01</leafValues></_>
        <_>
          <internalNodes>
            0 -1 460 -1.3200685381889343e-02</internalNodes>
          <leafValues>
            1.9163450598716736e-01 -1.3326819241046906e-01</leafValues></_>
        <_>
          <internalNodes>
            0 -1 573 4.2075277306139469e-03</internalNodes>
          <leafValues>
            -1.2589806318283081e-01 2.4368166923522949e-01</leafValues></_>
        <_>
          <internalNodes>
            0 -1 566 -2.3113577626645565e-03</internalNodes>
          <leafValues>
            -6.3052862882614136e-01 4.8962797969579697e-02</leafValues></_>
        <_>
          <internalNodes>
            0 -1 551 9.5190834254026413e-03</internalNodes>
          <leafValues>
            4.1866753250360489e-02 -6.3324534893035889e-01</leafValues></_>
        <_>
          <internalNodes>
            0 -1 436 1.1827313341200352e-02</internalNodes>
          <leafValues>
            -6.7581124603748322e-02 5.4420745372772217e-01</leafValues></_>
        <_>
          <internalNodes>
            0 -1 462 -1.7217613058164716e-03</internalNodes>
          <leafValues>
            -4.4886407256126404e-01 5.9781011193990707e-02</leafValues></_>
        <_>
          <internalNodes>
            0 -1 432 -1.8881257623434067e-02</internalNodes>
          <leafValues>
            3.6842060089111328e-01 -5.9678442776203156e-02</leafValues></_>
        <_>
          <internalNodes>
            0 -1 331 1.1419202387332916e-01</internalNodes>
          <leafValues>
            2.6946075260639191e-02 -8.2743650674819946e-01</leafValues></_>
        <_>
          <internalNodes>
            0 -1 612 -4.1431346908211708e-03</internalNodes>
          <leafValues>
            -4.7226214408874512e-01 4.5577690005302429e-02</leafValues></_>
        <_>
          <internalNodes>
            0 -1 483 -1.7812738660722971e-03</internalNodes>
          <leafValues>
            2.2909431159496307e-01 -1.0279766470193863e-01</leafValues></_>
        <_>
          <internalNodes>
            0 -1 363 3.5305947531014681e-03</internalNodes>
          <leafValues>
            -1.6499292850494385e-01 1.5154695510864258e-01</leafValues></_>
        <_>
          <internalNodes>
            0 -1 522 6.2177432700991631e-03</internalNodes>
          <leafValues>
            -9.6103876829147339e-02 3.5906341671943665e-01</leafValues></_>
        <_>
          <internalNodes>
            0 -1 647 -3.4328357287449762e-05</internalNodes>
          <leafValues>
            -1.9476640224456787e-01 1.2933921813964844e-01</leafValues></_>
        <_>
          <internalNodes>
            0 -1 20 2.6223149150609970e-02</internalNodes>
          <leafValues>
            3.2889377325773239e-02 -7.0725756883621216e-01</leafValues></_>
        <_>
          <internalNodes>
            0 -1 386 -2.8669312596321106e-02</internalNodes>
          <leafValues>
            3.0575713515281677e-01 -7.8007735311985016e-02</leafValues></_>
        <_>
          <internalNodes>
            0 -1 726 4.7684251330792904e-04</internalNodes>
          <leafValues>
            -1.3187231123447418e-01 1.7742712795734406e-01</leafValues></_>
        <_>
          <internalNodes>
            0 -1 344 -1.7448808997869492e-02</internalNodes>
          <leafValues>
            -3.0358377099037170e-01 8.6746416985988617e-02</leafValues></_>
        <_>
          <internalNodes>
            0 -1 19 3.2324790954589844e-03</internalNodes>
          <leafValues>
            -4.0144816040992737e-02 5.0877320766448975e-01</leafValues></_>
        <_>
          <internalNodes>
            0 -1 833 -6.6995713859796524e-03</internalNodes>
          <leafValues>
            -6.5093123912811279e-01 4.3069481849670410e-02</leafValues></_>
        <_>
          <internalNodes>
            0 -1 784 -2.2932048887014389e-03</internalNodes>
          <leafValues>
            -8.4866917133331299e-01 2.6774583384394646e-02</leafValues></_>
        <_>
          <internalNodes>
            0 -1 867 -7.5757894665002823e-03</internalNodes>
          <leafValues>
            -7.1219801902770996e-01 2.8797056525945663e-02</leafValues></_>
        <_>
          <internalNodes>
            0 -1 35 -4.9671702086925507e-02</internalNodes>
          <leafValues>
            -4.1342136263847351e-01 5.4856833070516586e-02</leafValues></_>
        <_>
          <internalNodes>
            0 -1 80 5.7138702832162380e-03</internalNodes>
          <leafValues>
            2.0037686452269554e-02 -9.3665432929992676e-01</leafValues></_>
        <_>
          <internalNodes>
            0 -1 748 2.9621746391057968e-02</internalNodes>
          <leafValues>
            3.7519197911024094e-02 -5.2324652671813965e-01</leafValues></_>
        <_>
          <internalNodes>
            0 -1 190 4.4939442886970937e-05</internalNodes>
          <leafValues>
            -1.4997617900371552e-01 1.4933590590953827e-01</leafValues></_>
        <_>
          <internalNodes>
            0 -1 15 1.1691818013787270e-02</internalNodes>
          <leafValues>
            2.8378468006849289e-02 -6.8705987930297852e-01</leafValues></_>
        <_>
          <internalNodes>
            0 -1 802 -2.6210241485387087e-03</internalNodes>
          <leafValues>
            2.4479450285434723e-01 -9.5974475145339966e-02</leafValues></_>
        <_>
          <internalNodes>
            0 -1 310 -9.3303263187408447e-02</internalNodes>
          <leafValues>
            5.4548138380050659e-01 -4.0921919047832489e-02</leafValues></_>
        <_>
          <internalNodes>
            0 -1 812 -3.3015047665685415e-03</internalNodes>
          <leafValues>
            -7.6720815896987915e-01 3.2487712800502777e-02</leafValues></_>
        <_>
          <internalNodes>
            0 -1 754 -1.2190607958473265e-04</internalNodes>
          <leafValues>
            -1.8418252468109131e-01 1.2486348301172256e-01</leafValues></_>
        <_>
          <internalNodes>
            0 -1 355 1.1805603280663490e-02</internalNodes>
          <leafValues>
            -7.2352215647697449e-02 3.1424927711486816e-01</leafValues></_>
        <_>
          <internalNodes>
            0 -1 354 1.0394671931862831e-02</internalNodes>
          <leafValues>
            6.5040595829486847e-02 -4.0049126744270325e-01</leafValues></_>
        <_>
          <internalNodes>
            0 -1 607 -5.5000126361846924e-02</internalNodes>
          <leafValues>
            -5.0067019462585449e-01 4.1942145675420761e-02</leafValues></_>
        <_>
          <internalNodes>
            0 -1 590 9.1817113570868969e-04</internalNodes>
          <leafValues>
            5.4236900061368942e-02 -4.0197658538818359e-01</leafValues></_>
        <_>
          <internalNodes>
            0 -1 590 -8.7122163677122444e-05</internalNodes>
          <leafValues>
            -2.1190810203552246e-01 1.2570677697658539e-01</leafValues></_>
        <_>
          <internalNodes>
            0 -1 862 -2.8739421395584941e-05</internalNodes>
          <leafValues>
            -1.7139448225498199e-01 1.3754500448703766e-01</leafValues></_>
        <_>
          <internalNodes>
            0 -1 133 1.2368470197543502e-03</internalNodes>
          <leafValues>
            -1.0689312219619751e-01 2.3248568177223206e-01</leafValues></_>
        <_>
          <internalNodes>
            0 -1 154 8.9096203446388245e-03</internalNodes>
          <leafValues>
            5.5241867899894714e-02 -4.2677924036979675e-01</leafValues></_>
        <_>
          <internalNodes>
            0 -1 203 2.2587468847632408e-03</internalNodes>
          <leafValues>
            -8.6308889091014862e-02 3.1846550107002258e-01</leafValues></_>
        <_>
          <internalNodes>
            0 -1 716 -1.6514565795660019e-02</internalNodes>
          <leafValues>
            -6.8398338556289673e-01 3.7773665040731430e-02</leafValues></_>
        <_>
          <internalNodes>
            0 -1 628 1.4674277976155281e-02</internalNodes>
          <leafValues>
            -4.5442968606948853e-02 5.9440040588378906e-01</leafValues></_>
        <_>
          <internalNodes>
            0 -1 588 -5.9229723410680890e-04</internalNodes>
          <leafValues>
            -1.6034740209579468e-01 1.5875300765037537e-01</leafValues></_>
        <_>
          <internalNodes>
            0 -1 396 7.4748933315277100e-02</internalNodes>
          <leafValues>
            -3.4715276211500168e-02 6.3629424571990967e-01</leafValues></_>
        <_>
          <internalNodes>
            0 -1 631 1.9070173148065805e-03</internalNodes>
          <leafValues>
            5.0335723906755447e-02 -5.0725257396697998e-01</leafValues></_>
        <_>
          <internalNodes>
